{
  "layers": [
    {
      "activation": 1,
      "biases": [
        0.2601728965208148,
        0.29069400273450446,
        -0.19466462960998585,
        0.6597357471246116,
        0.7928228504351641,
        0.0020856205411760964,
        0.5164424020316435,
        -0.04581990741973271,
        1.49165045743812,
        0.5849713220539906,
        -0.11711668792655511,
        -1.2402056528330103,
        -0.6581123709852302,
        1.080858671320093,
        0.530005589464408,
        -0.16823012162987522,
        -1.125789781213803,
        -0.22992477094341818,
        0.11481944575171248,
        1.268296017039898,
        -2.6564997204127905,
        1.0113214435630569,
        0.793918234054863,
        -2.538434428928674,
        1.8526985685530972,
        0.9973485580178838,
        -1.7915448435639436,
        -0.2754839560813341,
        -0.554179642177068,
        -0.580351907178454,
        0.004174334169850897,
        0.004133547663376974
      ],
      "cols": 32,
      "rows": 16,
      "weights": [
        [
          1.5602187174043325,
          -7.354948350156923,
          -6.5432944923037635,
          6.746013739011969,
          -3.8395121224786215,
          -0.004466939170260125,
          2.9618846127192113,
          0.24588692871735562,
          3.885583509196688,
          3.427283691587117,
          -1.4861044124199987,
          -2.5406331162748956,
          -1.7291946491368722,
          3.7869854195533645,
          5.240687867493098,
          -1.8882298899581416,
          3.5994280802611347,
          -2.906121186033885,
          -0.8256792102030565,
          2.858711892067157,
          -8.073990225486627,
          3.2636520007131624,
          -3.611942066977719,
          -2.6545449247099477,
          -5.082059708640131,
          -3.4755519338199754,
          1.5985837499443454,
          -2.621162163516458,
          -1.712258079210901,
          1.5125934128333998,
          0.21166904892504285,
          0.3133982958154052
        ],
        [
          1.7299909747073687,
          5.859912017661424,
          -1.9613411924203474,
          -1.6789468821271236,
          3.632537574446874,
          -0.16476710307360604,
          3.2267600069070985,
          0.8854383410751997,
          1.6110526861181993,
          1.2992627491240656,
          1.73929502727751,
          -1.9666589497219922,
          -3.4337765134693594,
          -5.078783467932976,
          1.015081253990284,
          -6.516021834389601,
          -4.072437948063744,
          -2.5551530345630136,
          0.7753730210591719,
          0.28440609614626405,
          3.339939394823948,
          1.0078952160498769,
          4.106179767624473,
          1.3790485386188256,
          6.019205640352169,
          1.7700272855006638,
          -7.557358419441176,
          -1.4726917386529141,
          -0.532638128345756,
          -4.381661095899062,
          0.12788889697661587,
          0.2692712936483408
        ],
        [
          -1.6588659093791458,
          1.186867932708388,
          -0.5745642164316253,
          -0.9591683488126523,
          -6.2094469430667045,
          -0.16313924476594113,
          2.574770765305137,
          -2.910288737353397,
          1.9639839270091084,
          2.0562138570876245,
          -0.33909622183173344,
          1.2397969126373278,
          -6.642057727286264,
          2.080446009797932,
          2.8103621487584967,
          0.35654805736013556,
          -0.2591894726126163,
          -13.167079088762641,
          1.6482159782737622,
          -2.1922031756423483,
          -7.406602572616325,
          -5.398649174994851,
          -0.45912399287546496,
          3.2093743217829385,
          1.1028152376037241,
          -2.1793213876740847,
          2.3319415903711707,
          -0.31635261181340035,
          -1.2870604243073778,
          -3.689688455817524,
          0.25034558151814224,
          0.37385611153706694
        ],
        [
          -8.794800755365339,
          -5.869795480524952,
          -0.15578143120218568,
          2.4827739088130967,
          -4.097283326112589,
          0.16488851924816866,
          9.927470954962658,
          5.200543399295442,
          -6.0562193090313565,
          0.07686890678535149,
          3.4661985352211784,
          -4.055840602655258,
          2.9052799032624352,
          -1.2153957293198592,
          5.933831297514501,
          -0.2638624774168435,
          -3.6575070555759663,
          0.22492860465785575,
          4.779726466738586,
          -2.95920381386128,
          0.7541923746116097,
          2.346517973032411,
          -3.2078524487508897,
          -6.651566781561188,
          2.2558770958862753,
          5.261711962295433,
          2.190599450214687,
          -1.4612412297318442,
          7.278254078139993,
          1.5816373795042185,
          -0.09635409738217443,
          0.281198765063559
        ],
        [
          -0.3964722106889326,
          -2.615542772763724,
          2.082348600059994,
          3.478063925572897,
          3.6631528658657024,
          -0.2810090284894951,
          1.9569350913727834,
          -2.305271508833754,
          -0.1779365493409682,
          -0.5253271315684327,
          2.744587380680182,
          4.582695315828305,
          1.7404825956041294,
          5.595388651517768,
          6.134269531841123,
          2.7149951412284787,
          5.798213587320955,
          2.862046675946885,
          7.395443198651649,
          -1.9269292284193347,
          -9.027953721501747,
          -1.6137002734915293,
          4.781987882606488,
          -1.7809897368290015,
          4.291847111483915,
          2.528534305260493,
          -1.2602924738996277,
          -6.855842794280856,
          6.319205288189487,
          -2.0046703107382915,
          0.127023026130629,
          -0.010997140736085176
        ],
        [
          -7.671288397056435,
          5.230864435790016,
          -2.8159068076904825,
          -4.451374139458429,
          -0.7932948507341238,
          -0.013700905379711682,
          -4.9769068232776466,
          -6.348626620831557,
          -0.23091986613384852,
          -7.22792246519581,
          1.8484583791305567,
          -2.4863332344465396,
          0.5471755441082192,
          -0.7752693837804715,
          4.827112072243625,
          2.567838408145015,
          1.557558188670571,
          3.773294134805406,
          -5.906445666737634,
          4.033925101888924,
          2.612255937619571,
          -3.7076044369490595,
          7.007363167935361,
          -1.233769405353537,
          2.21154078523536,
          -1.6016534001622325,
          0.6598072962518882,
          2.4153568130191445,
          -0.6457958228432916,
          -5.586686753181975,
          0.023014800004705113,
          -0.2727116520880025
        ],
        [
          4.230233964202233,
          2.956231773620115,
          6.896575406872109,
          3.942096214850731,
          -6.410144738506718,
          -0.32921962874701705,
          -6.284320123119027,
          1.958919396813737,
          -7.2899491166030455,
          -6.963985456809942,
          -5.781094853139025,
          3.745226996418498,
          2.0456003424136666,
          -3.0261443568087465,
          5.30302204301179,
          -0.05811367140953542,
          6.050568282891268,
          1.2925447988089875,
          -6.334734937640613,
          -10.172819163748699,
          5.753481056433906,
          0.8978311222888402,
          6.004315781099647,
          4.248742227143092,
          -6.91988477704475,
          2.6177027458118762,
          -2.609569085735612,
          7.189068925969089,
          1.6307795088585593,
          2.7241897577629297,
          0.2291799300960702,
          0.0714692310638338
        ],
        [
          -1.1537865450994411,
          2.321070858951256,
          -3.138921403113098,
          -2.855953006104028,
          -0.23279420633794237,
          0.11621668987055629,
          -6.1256199970189815,
          5.119386113921265,
          -6.250943516603853,
          0.1017090522403128,
          0.9870758774632045,
          -7.270435617941689,
          5.2457332794084675,
          8.546619416002255,
          -1.8009743056623482,
          4.5277524120310675,
          1.99476627489792,
          2.109028122699087,
          -4.687878201179243,
          9.376213512684512,
          -6.5007638510035886,
          0.6172320583944857,
          4.870906132311618,
          2.3766884593854902,
          -4.101501961640303,
          0.7551604450857587,
          6.959069444154752,
          -5.350649946655457,
          -3.808970126016635,
          1.132782817070703,
          0.080837733529153,
          0.3570180076646962
        ],
        [
          2.2595061278113664,
          1.4297561364861942,
          0.4338989448296021,
          1.2279645374014392,
          -4.64528671814291,
          -0.07719326021590232,
          1.1985061931864727,
          4.694296780790389,
          12.118366636398985,
          5.565515930887787,
          -1.2853828323926038,
          6.111674063492058,
          3.1123471699846172,
          -2.6698352419553646,
          -4.905087002016312,
          1.9837585742397443,
          -5.256386684045683,
          5.2473466346765445,
          -8.265377163408644,
          1.589299097707976,
          -2.6882754046512103,
          -0.8183047593981712,
          -8.614179207198674,
          -1.7769699835976587,
          0.6357850313770423,
          -3.9076117532361843,
          7.268467823316587,
          6.713276602585233,
          -0.36025991467187884,
          -4.039836601912609,
          0.24524850610173168,
          0.1763670933925045
        ],
        [
          8.480686089512615,
          0.2796019036261934,
          -5.90715708473819,
          -4.446212060986037,
          -3.781926645832295,
          -0.3406103129799446,
          3.336449531823358,
          2.115007606372123,
          -2.1192498108990097,
          -1.9028272722274069,
          -6.850818219841683,
          6.5403615267849675,
          -2.3456385991461257,
          4.533343761051763,
          -10.799140791218257,
          -3.5088356338092317,
          -3.0758895736513967,
          -2.6556484462076333,
          4.7721363692603544,
          -0.8186274792929047,
          7.475923915437327,
          7.317533636660682,
          3.6994830003840806,
          -2.0080617428128953,
          0.22533268400645415,
          2.3197283360496583,
          -2.736528821237829,
          -1.9661718924765992,
          -4.871559077101544,
          4.569615080850865,
          0.11377654529611764,
          -0.013061990942798278
        ],
        [
          5.827233219054181,
          -0.31919235466745294,
          -4.9931544421109955,
          9.084838588349651,
          -1.4577074378603847,
          -0.04419412170345478,
          0.21137848994019792,
          -1.2314577287161697,
          -1.3934908783601432,
          5.6008532284924115,
          3.303020979184377,
          -3.477480510851999,
          4.00681432795251,
          -3.307414546953822,
          -5.956181443161236,
          -5.259797781202785,
          -1.075260419967034,
          6.233216193306033,
          -4.200269825240552,
          -0.23953516770072997,
          4.939114544333436,
          -4.9759470444611456,
          0.9810474007929892,
          8.091513239944813,
          -1.4401057558161114,
          1.3174264100376816,
          -4.237818094727789,
          -2.0818372654913,
          -2.372053336870165,
          5.458348076540882,
          0.07769183639468494,
          -0.02403489988781185
        ],
        [
          -5.14016818150696,
          -1.4444358994549076,
          1.5205469467226538,
          -3.8998553793712993,
          7.985855908461646,
          0.1690021649129191,
          2.7867754409916707,
          -5.728442483667036,
          -5.028858470663128,
          7.857291845660428,
          -6.455577043560273,
          7.6770600354780285,
          -3.2005352809309344,
          -3.0803003652922363,
          0.24466143546316635,
          -8.62094711963266,
          6.819825112118834,
          3.6898362457433738,
          6.817008512442996,
          -1.809561025129549,
          0.9727902068451505,
          -0.5416367827408373,
          -3.763282950291795,
          -0.9872219438015473,
          -6.470645250414717,
          -1.1382695170173387,
          5.1826589806088235,
          1.1273407665617259,
          3.7072678208045056,
          3.5127224101609906,
          -0.2980156178501663,
          -0.25625481021711816
        ],
        [
          -1.422912910401538,
          1.6515945829872523,
          -1.4584530371137046,
          -3.369046418723214,
          8.552441673775345,
          -0.3323861120305515,
          -0.745607025884529,
          2.080078774020575,
          5.866768476351258,
          -6.611992690233523,
          6.218462312562588,
          1.5810553137359276,
          -5.099067421119482,
          0.9279762071017977,
          -4.316752819978786,
          5.260846603548083,
          2.25979253911906,
          -3.690824704605909,
          -0.5199657520265146,
          -3.321148688104207,
          -5.459106365406769,
          -2.910022519173487,
          -5.631275291516851,
          0.5270971687438417,
          -4.961755482978436,
          4.483294697958422,
          -1.0902461974872182,
          5.703580409657534,
          1.0846303622128246,
          6.028100055194631,
          -0.19584852418454382,
          0.33651088596045386
        ],
        [
          0.5079539647718426,
          -4.509418853720998,
          8.15263225978639,
          0.30052833180114324,
          8.082596161551239,
          -0.12961037242466025,
          -1.170369150583549,
          -2.1949744144054173,
          5.467710564352785,
          3.1001101476013906,
          3.487483989259616,
          -8.079859097055209,
          -7.03029117601809,
          -0.3310704945932508,
          -0.14290902749470444,
          1.9063394017302382,
          -0.3534592122277272,
          0.9976477719814789,
          4.065394947959361,
          -3.2501607918025095,
          5.372759351635276,
          1.385341231207636,
          -3.532704013654689,
          0.9895179142537411,
          4.863729471356452,
          -3.8567664661994865,
          -3.6939885752023365,
          -0.20006438781244143,
          -6.029209030211816,
          -2.575414333665339,
          0.39852897961084005,
          0.259840823938711
        ],
        [
          2.4561843544450266,
          -1.6366506532197047,
          6.264631187199731,
          -3.917747848988874,
          2.7785745650857683,
          -0.2774039848571169,
          -6.407781025137402,
          -2.7741440519393037,
          -4.529478849731179,
          -3.11871932985338,
          -2.3016516540325207,
          2.554944597803108,
          6.798394840007335,
          -3.9309778745722297,
          -4.181859912763249,
          3.327649698873382,
          -3.457302946880228,
          -0.9680626704471855,
          4.797298662466923,
          4.314467228803753,
          5.619046173254986,
          1.652442166334465,
          -4.536599245549993,
          -0.21306249401505867,
          1.1188077256063194,
          -3.5564807911188323,
          -1.071451591616876,
          -2.2247105939178664,
          3.062353334253311,
          1.0657727479906904,
          -0.07872139003518255,
          0.1486407715403501
        ],
        [
          -0.3372995056012735,
          0.2751430635899136,
          -0.1315915556347384,
          1.4205075634986815,
          2.7295212640398163,
          0.2964353875335909,
          1.2691271991467559,
          0.6045404553860166,
          2.7633884932067487,
          1.6979020390220034,
          -0.025526648786258578,
          -3.1596793910500702,
          -0.43098649425348307,
          0.9999729432923037,
          0.19164566550012763,
          -0.8964613161757367,
          -3.423767547441556,
          0.3243294379021633,
          -0.5387279474954099,
          3.5569259514253275,
          -4.30092690839675,
          2.745200796702914,
          3.503100141842936,
          -7.151024915341681,
          5.725155774772377,
          3.147270142069171,
          -5.6561852185318235,
          -0.9168655917829897,
          -0.8699152606305304,
          0.07697552945656429,
          0.1504458482970161,
          0.06009280754733459
        ]
      ]
    },
    {
      "activation": 1,
      "biases": [
        0.6136301614801535,
        -2.253031550003987,
        0.31140351647262415,
        1.729029047921929,
        1.1514504598622186,
        1.6413961088631177,
        -0.32080811116803953,
        1.9306517898634654,
        0.5755096257814718,
        1.0655639549460676,
        -1.9759067608549852,
        -2.705079897328448,
        -1.7343238371400846,
        1.2790910029079687,
        -2.2613082672806195,
        -0.21523787064317818,
        2.254305723832675,
        0.6488059984507758,
        -1.2880177815589549,
        -1.3202329756127642,
        2.181877433934969,
        -0.43604365784755683,
        -0.6398030222491048,
        0.37529263590079104,
        -0.7573003478799217,
        -1.7701671642922225,
        -0.9826718561316145,
        -2.219824045504916,
        -1.9361807853430972,
        -1.766864408259984,
        0.04061186820665704,
        -0.4237463702253415,
        -1.2702142368729064,
        -1.2698068266154787,
        -0.13497097444237982,
        0.13324846431219733,
        -3.5201416703437007,
        -1.6590253736734968,
        0.021881832004083616,
        -0.003909821316331633,
        1.1501048867168377,
        -1.5834365367126901,
        0.5169214693911933,
        -1.5978971174183376,
        -0.5236419807360161,
        0.5717203224971266,
        -0.4379494662521529,
        0.3664835134401684,
        0.5219899998334936,
        -1.2997801112240235,
        -0.30671777892096314,
        0.4616462666584807,
        1.1685898719282002,
        1.0572102826464993,
        -0.8773615210874665,
        -1.3471574569508036,
        -1.0853990739519874,
        -1.5713502595303153,
        -1.062151348809066,
        -0.5492177057579558,
        0.21335561645823242,
        -1.2403927442039846,
        -0.10251805520387391,
        -0.26210656325568815
      ],
      "cols": 64,
      "rows": 32,
      "weights": [
        [
          -0.2443700081045042,
          1.2596350815540502,
          -0.39497374116504413,
          -5.47559716042805,
          0.7295150862546225,
          -5.427696822001592,
          -4.973460575070254,
          1.0021565541595436,
          -0.2731197259930187,
          0.2771359259810118,
          -0.6779970621374065,
          1.0050992233313745,
          -1.8759128768073525,
          -5.212260333935763,
          1.122566199846642,
          -2.330278669621141,
          -7.827344308403679,
          0.7684678292465518,
          0.18741526576213396,
          1.010158185114171,
          0.9505880649618176,
          1.5293896414904546,
          -0.4392625579775312,
          -0.44793362394086506,
          -5.09845094609407,
          -0.07827063918132775,
          -1.2657941792560412,
          2.372766487087803,
          -4.518424407234636,
          -0.8159897184372484,
          2.761585347623465,
          4.08194521003001,
          -2.852335570800401,
          -0.4219189234878635,
          -4.1941094928635945,
          1.986924021564137,
          0.11255289803090164,
          -0.7366893403757807,
          -1.0602917868135213,
          -1.3002495953419704,
          -4.7495134784766995,
          -2.8782725578894763,
          0.4285227710686046,
          -2.684163168404626,
          0.6660835242428728,
          -0.6965915639240743,
          -0.33334317111087514,
          0.39043821220297653,
          -2.54110598120369,
          3.2294962296456897,
          -2.0144979986104823,
          -2.524864286498046,
          -0.4066910016781449,
          -1.0821158600402672,
          2.0975365237930603,
          4.917463054979729,
          0.047887771005995776,
          -6.396819897240827,
          -7.181393678026187,
          1.5465825642129472,
          2.7713972325049037,
          -2.416420908671675,
          0.8957305719980948,
          3.885890265785777
        ],
        [
          -7.269447586050515,
          -0.5228264288221701,
          -1.2082653328137667,
          0.819190112181232,
          -1.0896467525724784,
          2.052257080691887,
          -1.9085591126715296,
          1.4129417496418697,
          0.4871598973287886,
          0.6176565075943639,
          -1.6531242246068791,
          -5.52495019715415,
          -2.838529086556372,
          0.20283599549679707,
          3.556700665348359,
          -4.465876391101647,
          -0.5438487664058715,
          0.44741121717057897,
          1.0463956040626317,
          -0.0411168306703465,
          -3.3800645112787664,
          0.657256948180255,
          -0.3655116344871663,
          -0.09376991687051935,
          1.5553873286067277,
          2.287504077726267,
          2.9436140971276803,
          4.1502524171932444,
          5.362569470078727,
          -1.3500661221142816,
          -1.2965995934105194,
          3.546932889076415,
          1.7194391641845579,
          -3.6740175338364227,
          -2.766057929424567,
          -2.942248184277251,
          0.46944217259948007,
          -0.08573767746778016,
          3.1947910832941764,
          3.847390582102566,
          0.9976557016817742,
          2.802952191485533,
          1.8083412024103034,
          0.46818233612846044,
          3.0245084495443932,
          -0.37393982700048306,
          -0.27054545980055383,
          2.684142907432383,
          -1.9479431815277426,
          3.6757346150488406,
          -0.2484998313919328,
          -2.756958206032039,
          1.4782221330886887,
          -2.9706310230525217,
          1.8359811844885199,
          -0.8144982314066259,
          -7.764535993382268,
          1.1702405209064417,
          0.9862047269694036,
          -2.0710938078358527,
          -6.315652157521533,
          3.178655054897525,
          -3.0545938696126322,
          -0.06596014584953874
        ],
        [
          -1.2863825478772866,
          0.06790808940636589,
          -5.908134127937355,
          -2.8170385424855677,
          0.3323627547563545,
          -1.4031085865813588,
          -1.7425832141916544,
          0.047394150011550805,
          2.213200926550043,
          -1.4235101677836868,
          1.1221388269077421,
          1.9206068576513744,
          4.249330760947048,
          2.317363024839081,
          -1.2348453919943148,
          -4.140775418579351,
          -3.656060357596506,
          3.3210374103320386,
          0.2682189277014287,
          -0.43205650327411327,
          0.3587982797100177,
          0.10159525600472995,
          -2.408194366230415,
          0.490472388920574,
          0.4491287486079886,
          -9.151928849195816,
          -1.3393712540098186,
          -0.17631780593144183,
          4.7912825765497855,
          -5.285442556180109,
          2.347492846570022,
          -3.505798316960377,
          -0.6770806819489401,
          -4.234686594767083,
          0.8832234630785242,
          0.10061931641281945,
          5.411582711575748,
          -0.3037595363661806,
          1.747700629818079,
          -2.13813831023727,
          -1.4458268536192564,
          0.5482963886579615,
          -0.07579818829404576,
          -1.5237785037998697,
          -0.6735050011082023,
          -1.7287829251636797,
          0.480672473943402,
          2.7648926465379993,
          1.9829889262398765,
          -0.007603211589624806,
          0.29978781260174614,
          -1.9393126427358534,
          -3.934013657942683,
          4.905007885370664,
          -3.924312470139672,
          3.103442937091105,
          1.219398904644181,
          2.048052408188878,
          0.17934592405840774,
          6.433448452223761,
          0.15966440539097107,
          -1.6523472319348704,
          -0.5830068660273929,
          -2.7154551234394644
        ],
        [
          0.8897039219106052,
          -0.9615150160653777,
          1.1747786808126104,
          3.0422279381277115,
          -0.19641628986143436,
          -3.105785041918181,
          1.2727093095552577,
          2.522172464402466,
          3.222312692230838,
          -3.6282216430815386,
          -0.3360674852859372,
          1.7165556413951613,
          -0.16502307271742317,
          0.795924223939194,
          3.3654043715404383,
          3.8973903909159437,
          -3.7095982890574577,
          -2.542729956025716,
          2.110912826099077,
          4.238017303988832,
          3.131820420398822,
          -5.751895666986653,
          -2.212969493117965,
          0.10217626040023488,
          -3.786800921385328,
          -2.597374821150463,
          -4.7153263546323725,
          3.1362937979990186,
          0.4932423447684276,
          2.5201469373324064,
          4.806333641966699,
          2.5637581089962738,
          -3.1385061161382786,
          4.585540530012011,
          -2.721369417598863,
          4.703060679732322,
          -1.0243870785547629,
          0.36278638988577583,
          -3.092484897381166,
          -1.726515561032681,
          -2.826545595092661,
          -4.261608796054126,
          0.6792348627299857,
          -2.7109670085387383,
          -0.9400323483500489,
          -1.7249607627079753,
          -0.572932025788132,
          -1.3707134091652853,
          -1.1947681706996085,
          0.2626873011911563,
          0.6160518396721322,
          -1.751403554159635,
          1.737631380811472,
          -0.0013859752173902772,
          2.8116606415317715,
          1.7883298914140358,
          4.061152054665701,
          -1.3966998976561442,
          5.779283409205872,
          -4.078098062943523,
          1.5157152298664673,
          -0.5865312760349403,
          3.360109905363345,
          -4.511236458516636
        ],
        [
          2.130391728331179,
          1.3904760897009765,
          -2.183362558282853,
          -3.448959772801778,
          4.703067884676867,
          -3.8876986753779486,
          -0.7329961056047753,
          1.548670691813928,
          1.9886643761248397,
          0.16961609186448212,
          0.4965018356018113,
          2.8500218859354685,
          -4.511052700212338,
          0.8494907758107774,
          -2.2273122078136347,
          -2.9033986132456446,
          1.99637224921655,
          -0.275686050669033,
          -6.928982614427657,
          -0.4277161289837071,
          1.4461930551171662,
          3.333323545124362,
          3.7781320647856327,
          5.323517306458186,
          2.5594835071384825,
          -2.598451942767872,
          -2.1279391081972987,
          3.8084515216367945,
          3.1734324100105744,
          0.4069721755379336,
          -6.8091375652310075,
          -3.8746318028861624,
          0.17423561130661275,
          -3.257232318478666,
          5.770069607938694,
          -1.587994870583868,
          -5.870624220705084,
          0.6016394215807377,
          -3.90858188584891,
          -2.7237856753063006,
          1.9775516083802671,
          -2.9428425807937924,
          -2.013098710430809,
          -1.475132087143628,
          3.137306490614867,
          0.19824647890475636,
          4.436728516034876,
          -5.690730359108429,
          -3.4607636848130126,
          -3.583269515468504,
          2.7814986300563325,
          -0.4051907852451669,
          -0.6997795384918849,
          0.34070213647396846,
          -0.1867015804595723,
          0.8495556454375063,
          0.002582426687482417,
          4.298576728737747,
          0.8834340539065687,
          2.139973010336587,
          -2.62545203158086,
          -2.7409740561317686,
          -2.443084537877827,
          0.9224957136510156
        ],
        [
          0.15529638506275018,
          0.19041631446076754,
          -0.20064995228927696,
          -0.1897402352792244,
          0.14382919472429243,
          -0.09272942762349683,
          -0.16359298935440025,
          -0.21429283932431345,
          -0.22351003019100657,
          -0.04826072479179834,
          0.1153557585636043,
          0.18848893651844753,
          -0.23654287055704293,
          0.041047363087340576,
          -0.12168209534020707,
          -0.23027342050539729,
          -0.14657371859070006,
          -0.09172826644895778,
          -0.16018364623915315,
          0.2317426248943085,
          -0.24694116992677065,
          -0.23763696685705152,
          0.23872195374225622,
          -0.19673489851894263,
          0.20362039373416474,
          -0.14612319838855445,
          -0.20337788042965008,
          0.21218428862411595,
          -0.08096700531984156,
          -0.10933454311811583,
          0.23204855264727262,
          0.18512514132908126,
          0.13744218993725096,
          0.10984505513239233,
          -0.2196544533702919,
          -0.04491853927617587,
          0.07944311721409063,
          0.23226641315830335,
          0.17296853143902266,
          0.24490445057883065,
          -0.03716821536181604,
          -0.004976459871555047,
          0.12091642486080646,
          -0.23075831697528426,
          0.03451634896385196,
          0.11389622090550851,
          -0.1347945988587596,
          -0.22035012684591265,
          0.005055718475742885,
          -0.18738541075445872,
          0.1205479150504158,
          -0.014339641796274186,
          0.10977239981448417,
          -0.17273363259082147,
          0.12470521421424229,
          0.11326963719091174,
          0.06537237515724924,
          -0.12012871405655352,
          0.09769515713252108,
          -0.10546926889320854,
          0.1167067683733795,
          0.20055142867044393,
          -0.22932323149381695,
          0.06153848224685425
        ],
        [
          1.5716217228846443,
          1.017248649401376,
          -0.5102693432638522,
          -2.1327755100135968,
          -4.832186890769188,
          -5.939640159708704,
          -1.7159606940263603,
          2.3499033243372254,
          -1.8223269004449067,
          1.157302217026586,
          -2.7922744082833995,
          -1.2927428812487385,
          -1.7882402330963731,
          -0.44199787421875253,
          3.10762651369826,
          0.462730552073842,
          2.2071802755025285,
          -0.8947028842465824,
          1.2892398674650494,
          2.201931245165905,
          -2.402463330846994,
          0.14628573964240202,
          0.4805098132158957,
          -4.9750413573859085,
          -0.9419091655302981,
          5.544450518197875,
          0.2950086507383251,
          0.20717955863413295,
          0.8001208449854326,
          0.8984762070556831,
          -5.61131566046126,
          -1.1511683742690455,
          3.6886024989193076,
          -1.6374957389213287,
          2.2434559528493674,
          -0.2727603265958214,
          0.1371599366012416,
          5.4636506824116395,
          -0.4378069950632142,
          2.885936037143106,
          4.09971906815496,
          0.6277326487415813,
          -2.8078388988432894,
          0.27151506975301,
          6.802284509570539,
          -1.4062856413108782,
          -0.035582781175729675,
          -0.5691885504841837,
          -4.540419625249879,
          -0.9524445984527737,
          -0.18968766760038322,
          -1.4427376681788115,
          -1.730410551726886,
          -5.152205482959302,
          -1.2703206660591015,
          -0.2906172023100221,
          -0.25836369374850066,
          1.3902154219030651,
          3.207336088919389,
          -10.236505787235314,
          0.03580318721942814,
          -2.9411529294503165,
          -1.0242946079157658,
          0.08561333745327976
        ],
        [
          1.0274110309213567,
          -3.124287655214539,
          2.503408154657174,
          0.010330090611340378,
          -0.6197376848650876,
          1.2307188032438114,
          1.0079939592173037,
          2.4399239497783456,
          -1.332248015271148,
          -1.8032162115827681,
          1.1181032867858938,
          -0.6221008224709211,
          -0.22664934157094854,
          2.76687758342364,
          -0.48561513194619155,
          3.034610507063435,
          -4.287256454475373,
          -2.0311675860217306,
          2.542278039862487,
          -1.6710945962380266,
          -2.6074503517784997,
          -2.5402097493776434,
          0.17422270275784324,
          3.337898612754716,
          -2.7060640985390183,
          -2.2685601966741102,
          1.8303331676617705,
          -0.5965019101236008,
          -1.652625550782054,
          -2.171353876233822,
          -3.878419061793393,
          -1.9517223579897272,
          -1.1015056971653703,
          2.1888706600645302,
          3.3574121221178252,
          4.474265780817536,
          2.7397276977131964,
          2.063970159282799,
          2.404078639122223,
          -1.8456650468711246,
          0.03005552414772536,
          -0.556903510241062,
          -6.654284403513744,
          4.248379259950067,
          -1.5602835618148707,
          -3.7529986922407765,
          2.282833264721003,
          0.7045969230975274,
          -5.299564140747985,
          3.1251660842927422,
          -1.711994653255204,
          1.3827837661805065,
          2.3894074795693285,
          -6.2414675116092,
          -2.788430141932428,
          -2.2363308154559185,
          2.715397777496409,
          2.86980083345213,
          1.4695313899340183,
          2.789660868531277,
          -1.1029907883609436,
          -3.15696909889038,
          -0.8052887894204536,
          -5.109608308823114
        ],
        [
          1.6086023240069505,
          0.6788727641821217,
          -0.5049112265553433,
          -1.1498757537724544,
          -4.399196368799017,
          0.01835279077510816,
          -3.6816912355175866,
          -8.412100319986479,
          -3.131681114656404,
          0.05861504286003288,
          3.3348361713978374,
          1.2596523079822277,
          0.8759845845206041,
          -2.1638592709248448,
          -2.0939209050633636,
          -3.93636625400034,
          2.4317968731642026,
          2.2794784215292445,
          -0.9162929104898141,
          1.202739830020752,
          0.8004380982580179,
          0.14544909233249886,
          0.8142108125345757,
          -2.943716698173703,
          4.550531504626153,
          7.244854179423563,
          -3.078825657702455,
          -1.9674786951762744,
          2.97644954888093,
          0.04685014412513001,
          -6.176407609430679,
          0.8334191270898836,
          0.5318439554316099,
          1.6618573382615611,
          1.9062915716696434,
          -3.818953758485562,
          -3.3479732912432296,
          1.7094252008876412,
          -1.5406674105496883,
          -1.6695117510381738,
          -2.0247860001510682,
          -0.5254355954216177,
          2.7669693725581093,
          -1.3097195840743419,
          -1.1983625700715008,
          0.08086612601144531,
          0.9612272074118624,
          -2.306331171877376,
          -2.943691915610196,
          -2.3585821454573708,
          -0.16007387419876634,
          -2.9497127627913575,
          -0.052653562323891775,
          -4.123057928697082,
          0.9732019124554255,
          -5.322396049057291,
          1.0370766133313027,
          -0.506010692486938,
          -0.011863140116742747,
          -2.387414257505057,
          1.7740065357280872,
          0.7260946517811854,
          2.1153330164078272,
          -4.227968239056475
        ],
        [
          4.841119439293486,
          -0.8812481146947522,
          -3.3669501779869204,
          -3.678440510493413,
          1.2302199855385505,
          -4.182143076827578,
          2.6573716915562797,
          3.8131688983865066,
          0.04208930802082144,
          -2.4899927863854345,
          -3.4525790652959576,
          4.374182512885945,
          4.243335638962083,
          4.342994052726118,
          -0.06037546711826619,
          2.026781351334993,
          -1.94796550235905,
          -0.3679424868284274,
          0.34637221054988154,
          -1.7553809331196866,
          -4.391857438891247,
          3.967123888682919,
          -0.3226634540299794,
          -2.299129327068984,
          1.5740519290536392,
          -3.057616212273994,
          2.2537022167211203,
          2.6925519444924415,
          1.7646472861204596,
          6.404041030439304,
          3.3921391186018357,
          4.423143142469538,
          4.217795422609772,
          0.08293362827181522,
          -3.8471361347648716,
          -1.2981483825586821,
          5.242064413778987,
          -2.5901920973988557,
          -6.061742685596255,
          0.11636957272778523,
          -1.3465265715083474,
          -1.989719100323072,
          3.864650994157183,
          1.609677358756528,
          1.2370942579819102,
          4.19149637944101,
          -5.209065638387989,
          -2.9395028685361297,
          0.3113893189631838,
          -5.978125990396979,
          -1.5128135738620212,
          0.9502373093532742,
          -2.6678097011446837,
          -2.6843391716378355,
          4.370051772538229,
          1.1612967309744435,
          -1.239681316471825,
          0.9960633714565577,
          0.23513178445396113,
          -2.773528221372545,
          -0.8820951635620206,
          -1.3566382999680338,
          4.093198755775375,
          0.8785404579752277
        ],
        [
          3.743566051255694,
          -1.372029312970056,
          -0.5175328567686089,
          1.28886466139603,
          0.6283553640058513,
          -0.4837608157381983,
          -1.98717682162509,
          -3.7363700373863797,
          1.0231612147604028,
          5.942221503865085,
          2.581794717633252,
          -0.11250427914455188,
          -2.4941672537474315,
          1.0784031622293313,
          1.0615283043070876,
          -3.5572445027720105,
          1.2400983447208367,
          -0.2432259697168009,
          3.8389486006488234,
          2.243782060810711,
          -1.4995230083700215,
          -4.821413952614814,
          3.1587821368840654,
          2.5131211056824863,
          1.6427030303403956,
          3.2625164951944545,
          -3.100142347826588,
          -1.0145498228541996,
          2.4766359004669565,
          6.169369139463721,
          1.1601920073728165,
          -3.171734847533449,
          -3.87124565963678,
          5.342253898728394,
          1.6856564221269645,
          -2.8863681175285683,
          -0.06971983790271603,
          -0.6630314734285909,
          -2.508098177081723,
          -4.472295973823137,
          2.805812795482069,
          -1.6628506486607242,
          -0.44504651309355925,
          6.634931478037856,
          0.08912027193417424,
          -3.1179214852642576,
          0.3899179123917135,
          -3.9126285112716075,
          4.767985460446866,
          0.24273177453774977,
          -2.8032852766134413,
          0.057076873216354,
          -0.725736197176439,
          -0.8375269423321801,
          0.5118800748841611,
          -0.23930377094634858,
          1.8616147632883937,
          -1.4492752726519023,
          -7.720480518168565,
          -3.0432138949630128,
          -0.40056340067604607,
          -0.40401063517213825,
          -1.2606234647042243,
          -1.5742715594220853
        ],
        [
          -1.4952911509125109,
          -2.723781729291124,
          -0.5895807360495167,
          -1.7675191842173554,
          -2.467994885178011,
          2.3329987464030713,
          -1.6563163643520473,
          1.3451958912772966,
          0.5283777338307178,
          -3.7006316860621102,
          -1.7683188875091203,
          1.5779596429033873,
          1.2762464423052053,
          0.5558977282973891,
          3.160695451074576,
          0.4731984693051484,
          0.13829084243703813,
          -0.8821896756422857,
          0.5363491480352877,
          1.6221655745076087,
          -2.778273119198396,
          3.0722352069786587,
          -2.0607800624910495,
          -10.6367384065119,
          -4.829602220369358,
          1.5932334651533957,
          2.9217899883343783,
          0.25182469421025944,
          1.7312036579282273,
          -1.8130287413419663,
          0.4722708806662174,
          2.367057922215538,
          0.005774215681207699,
          0.6220228865462706,
          -2.433287916855778,
          -1.7895365115796102,
          5.332247711591711,
          -0.8067854155200919,
          -0.6689403531908356,
          2.182989670166891,
          -0.6311811892244081,
          1.0429276365666216,
          1.7178881651182847,
          1.5998461375827773,
          -1.9661160836816018,
          0.7124554517696626,
          3.097076626935188,
          -1.0574278642782429,
          -3.231873049272589,
          2.5713991116373225,
          2.311505427148554,
          -7.108469494397285,
          1.1310906459962335,
          -3.1663720281619008,
          -6.4812966535622305,
          0.9208498218600395,
          -0.45653110140192926,
          0.3605366402995862,
          0.2472433670274293,
          3.1422246958638307,
          -3.799936518694207,
          0.04374888176955758,
          0.15666429661111136,
          1.4418625416120523
        ],
        [
          1.2918915368977097,
          4.710616660216059,
          -0.8493188118496892,
          -0.16702187199869387,
          5.63759339875245,
          -1.1229741381861538,
          -4.054572401648645,
          -0.273672584875943,
          -2.8543930445592234,
          3.519656943490632,
          -3.1854156072986224,
          -0.80179396456363,
          -0.2372078470417391,
          3.380767301530974,
          -1.8875620294609474,
          -2.36530951079829,
          0.20280655133856076,
          -2.5639779202907786,
          2.6525556972906674,
          -1.7992652023692015,
          3.81263992504095,
          0.6857688694890489,
          -0.7371612782849661,
          2.1725510722691195,
          0.4004289326289994,
          -2.833182892983163,
          -2.9461408594329583,
          1.7096269605717476,
          -6.320231470685443,
          1.2946070433587293,
          -3.272486034048454,
          -2.412595676432904,
          -0.8147146356780243,
          0.7574747184723252,
          -2.4271956090626823,
          -0.338413851315682,
          1.1302697385015374,
          3.2729680863958084,
          2.731362680981656,
          0.969842706648924,
          -0.3229637851619412,
          -2.035142687421185,
          -1.3046622169116673,
          4.136347653536932,
          0.25967031161166754,
          -3.8109441498305583,
          2.462588803798979,
          1.055227994064499,
          0.23431330693450106,
          -0.2733708505976468,
          -1.1656484916653536,
          -0.5904232998207383,
          -1.5588446676012664,
          0.7062783229393415,
          -2.9403410039323634,
          5.510175202790012,
          2.3694569592585406,
          -2.5230677641843866,
          1.7101500517188415,
          -2.83423823310006,
          -1.1541194765759388,
          -3.4368214684876297,
          -2.574303621917211,
          2.871062968543681
        ],
        [
          -0.44738344981887207,
          -2.7014327456843272,
          -0.5356423720810441,
          -2.1282751277321554,
          -2.2470106899380284,
          -5.295818645273384,
          -0.5085005580820571,
          -1.0313247051310996,
          -0.0679963003984763,
          4.995696814206269,
          0.04560344256921432,
          -2.0668033002634076,
          -1.091848836382408,
          -6.6832815664305825,
          -2.5072402923432318,
          1.426637770136945,
          0.7410030372807265,
          1.6959186260466566,
          -0.28479304001553307,
          -3.8141926279002263,
          2.7619514583823004,
          -3.9893972030446867,
          -3.4489828807230873,
          -0.6594203259578194,
          1.8044105825078685,
          0.6912805285876471,
          -0.43674325741280773,
          0.017827680493091264,
          -6.908839266868156,
          1.642312726438155,
          -1.7234696205852986,
          1.4159850320304856,
          -2.8513986738556745,
          4.20701642061459,
          1.5969896912726669,
          2.3760722042531235,
          -2.6368119484128933,
          -2.712265488208192,
          -1.5583596772472583,
          3.8749694832852213,
          -0.5229960366075888,
          1.132329873359927,
          3.9854462183531942,
          -2.9127381665119145,
          -1.242602057441986,
          -1.4520997330768557,
          0.750735696163467,
          2.9105191701444157,
          -0.6255156218451873,
          1.0102173515912751,
          0.22231023602242267,
          -2.885642974110074,
          -3.849058876289088,
          1.1694748660720937,
          3.820779510307507,
          -1.1000460426873089,
          -3.7771661017636387,
          -2.718688527631071,
          -0.41961324327289345,
          -0.47715687144860164,
          1.5484900273220972,
          1.4805685969073406,
          -1.2346422028718627,
          6.401764071738784
        ],
        [
          -0.29426632681028947,
          -0.851892145143446,
          -0.24203456899683976,
          -0.27758446005407234,
          -4.011529658325673,
          0.267146742097291,
          2.346414609502412,
          0.7285638679326029,
          -1.5490394299800647,
          1.7474431148238725,
          4.232813313451964,
          -2.0651414056305457,
          -1.4176280536698418,
          0.3601237617313812,
          0.21625812997373453,
          0.3258392176382718,
          0.5337450023445645,
          -3.1574741075332966,
          -4.28554308462086,
          -1.1372036711237732,
          -2.9179444270013875,
          -0.4932041879839485,
          1.4502689908565156,
          -3.38326247833552,
          1.3877022151962943,
          0.601057648865887,
          2.593515708662152,
          -3.2103955915428495,
          1.571007917220253,
          1.521861693672023,
          -1.3409869017162428,
          -1.2537438290924456,
          1.3540096138227231,
          -2.0349027725441737,
          2.462230784513546,
          -2.547694626073409,
          1.265803156759221,
          -1.4893144366275997,
          -4.139907997835395,
          -2.9547922794138133,
          0.5808305644832356,
          1.1839369573397833,
          -0.35279397463572304,
          -2.6428558136887688,
          0.170734009787735,
          3.3205853491377177,
          -5.466371798856479,
          1.268814509333022,
          2.055211014331483,
          1.4304193072788074,
          2.3852331795212516,
          -3.1718609331162173,
          -1.5105530878149114,
          4.279662585699599,
          2.525059528775502,
          -8.215449157263137,
          1.2687538963486427,
          2.74652102608384,
          -1.3493778713229319,
          -10.078186424474978,
          1.023350795282633,
          -0.8184504418302347,
          0.04319220503232278,
          2.161984239554684
        ],
        [
          2.6596996827444563,
          0.006573147698261902,
          -2.0561318218567757,
          3.953180612856126,
          -1.5061831940048742,
          -0.4449493282140344,
          -1.7344386829045118,
          -2.6826952544314984,
          1.0950194758644183,
          -4.063320315939459,
          0.15996144186403732,
          3.92289049017936,
          0.20054881313800096,
          3.60029201915397,
          -1.6205912727256555,
          0.5836329986262244,
          1.1388400135582826,
          -2.347823044493459,
          -2.3234864387592022,
          -0.29966100348099145,
          0.35861612254763675,
          0.3237714576870243,
          3.72783660503884,
          0.2218406140078599,
          -0.7454701017153673,
          2.7308915249547807,
          -1.8200110657368875,
          1.383330952110052,
          -5.822179075989488,
          1.7411918835012945,
          -3.314000680856808,
          1.3340120294046427,
          -0.37960787051996575,
          -0.5371578631191164,
          -0.6022029928771787,
          1.0559045535116767,
          -1.5476021221035159,
          0.04406246556313963,
          1.0755994308989105,
          2.1490150110494777,
          -4.4254841661147575,
          3.5721990461884015,
          -1.4489852923661783,
          -1.8251112229420217,
          -1.2409070542739877,
          -0.943042386048418,
          -2.777905303601542,
          0.26693085718996173,
          -2.162534051896279,
          -1.654996976021961,
          0.3861011044360741,
          -2.6943156824460086,
          0.2624672745547829,
          -5.142118704069733,
          3.092642662445802,
          1.5495450066392433,
          -1.0729218562659957,
          -0.8490478470956648,
          -2.20983801198124,
          0.5803152230417074,
          0.9283393706311042,
          2.3968675556046155,
          0.4302251321713277,
          -3.5495767734060086
        ],
        [
          2.29494699213709,
          -0.30452471482566146,
          -2.399167158435403,
          0.26281409928013516,
          0.10757422445709022,
          1.802976553828295,
          -0.581022211089582,
          -3.7938677073562865,
          -2.039153045487217,
          0.5212214387703396,
          2.590445115850649,
          -0.42788224239133504,
          0.36579265081960005,
          -7.246977501219044,
          1.729672723759501,
          -0.8842059030804236,
          3.8091254892241584,
          -0.7868451580426981,
          -2.2667702039758684,
          -1.8376883878343322,
          -3.5049925443305257,
          -3.746531703885203,
          -0.4464935348076662,
          -3.702425371312921,
          5.887253967524576,
          3.209290681461912,
          1.4640155869181588,
          -0.6291627500827194,
          0.975206869300404,
          4.599224293873131,
          3.403685317868095,
          -0.30102833615527785,
          -1.3652342921226466,
          -1.2124406098773555,
          -3.619170277849057,
          1.3023976631041323,
          2.797928863420896,
          -5.176818476255915,
          -2.8512312584985167,
          -2.2534802114050474,
          1.4324831236131574,
          -2.9741071262666736,
          2.169050603831592,
          1.3442565554473378,
          -0.9114228100136444,
          -0.14813338411226923,
          2.2717927944029115,
          3.1199549760908907,
          -1.531188761569355,
          5.612920120487078,
          0.6159869483144771,
          -0.7797052833193505,
          6.164722885277347,
          -0.17694779468477237,
          -1.2624442697586098,
          -1.4368136409387788,
          -3.5639454003488455,
          2.282194401796499,
          -1.8379721773676636,
          -2.280111916569441,
          -1.8156205438709463,
          2.143211573950652,
          -3.2602479304031933,
          -3.137005175063795
        ],
        [
          1.1972868454792156,
          -1.2631183214094055,
          -1.4809632876310759,
          0.554866870511011,
          1.4926490985782965,
          4.71165653965493,
          0.5067548430607274,
          -3.7327466221621886,
          1.3733113755681585,
          0.9013142084341668,
          1.3515736554414524,
          2.402868771962126,
          -3.6839735420186033,
          0.06489935800435048,
          -0.3286401372932853,
          2.261140582700548,
          -1.103297539660407,
          -0.8273408582423414,
          -3.326478823808169,
          0.14211454989049765,
          0.5934777151868851,
          -1.690234528056864,
          -0.35907728808987005,
          1.707887378636202,
          4.021190037311221,
          2.0884264399538237,
          -1.8437799361122997,
          -2.279114463414297,
          -1.9556138051434273,
          1.2004085386380723,
          -3.0227539819865674,
          -0.8517174814482706,
          0.012139793385474162,
          2.268524899087487,
          0.7884205068423634,
          -1.3378910231483399,
          4.518658330691858,
          -2.6963279284146062,
          2.0294974444551013,
          -0.7428202644455097,
          1.3486538732548492,
          -1.0719220137946095,
          -4.303694887506941,
          -0.32020581725133335,
          -2.3588672913057067,
          -0.8625792813178796,
          0.43450130197696063,
          1.5658621029254265,
          -2.5668767037501787,
          0.797585797176696,
          -0.483369076982744,
          -2.2230644683453824,
          -3.813648462885521,
          1.0455442386286868,
          2.0649863586455193,
          1.40201660010987,
          3.3709399839155862,
          -0.6328514014550113,
          0.7322481855635681,
          3.70945352187148,
          -1.7729834383220167,
          -1.7622708357413084,
          -1.645841190104362,
          2.337870089180564
        ],
        [
          -4.254592144051186,
          -0.6472132399051653,
          4.206405125630486,
          -3.165539299150287,
          1.8126470717921699,
          0.41337510735908295,
          3.39317478697874,
          1.7753909321237862,
          0.7748777579714274,
          -2.624720618313195,
          -2.817862773327193,
          1.9369070618129092,
          -2.7834042869581253,
          3.5205617079850633,
          -0.9739122830761274,
          1.6381535645803067,
          -3.889481556391478,
          -0.8514653327922374,
          -1.6250102278368936,
          -1.14462695568134,
          1.4739669523141135,
          -3.0162899254716287,
          2.403555065423452,
          0.131543639740895,
          0.7570784264858694,
          -8.670868911318339,
          2.259694386819062,
          -2.6489296079309024,
          1.0991169354311092,
          -4.906501647967415,
          -0.7851301097139272,
          -0.07011444388965789,
          -3.418418690252884,
          3.7840350675401133,
          2.5879061091658646,
          0.5355289270244143,
          -6.031436136334686,
          -0.5212314253264684,
          0.022817527934412177,
          -1.4200580584680238,
          1.5632245172309953,
          0.6573327142074632,
          2.2220120005842325,
          -1.547088680681745,
          -3.4839448872431737,
          1.027555597812396,
          -0.06419178996777461,
          -4.862933149252655,
          1.661822636031136,
          2.003902175467446,
          1.1281637420438893,
          3.4443114009104048,
          -3.7430591290997417,
          -2.6114398439781477,
          -1.5589108110973084,
          -1.533013535108184,
          3.040204224839236,
          2.583783827016403,
          -0.7569056000953415,
          -0.6946875253981871,
          -0.8734824765298529,
          -0.04923049141868871,
          1.1031610560776532,
          0.6433357926352137
        ],
        [
          -2.6248196316755577,
          0.7743304424124473,
          -1.9069191844544138,
          0.13471008037406632,
          3.5727858649360495,
          4.706186590729887,
          0.2720861045064235,
          -2.5379301349920436,
          -2.4780174744937518,
          -2.02314763254468,
          -3.171681507938482,
          -7.582647946156013,
          -0.2577396167855509,
          0.49163639033979956,
          3.644222236087819,
          1.3945319734970265,
          -3.532845050006794,
          -2.2418288240643127,
          2.1447411244286316,
          1.3203063117992055,
          -1.6168510566737397,
          0.6157989792394003,
          -1.408273897027522,
          1.9917886763833266,
          0.19513988556767806,
          -2.8534657905771863,
          0.33275724230827075,
          5.121290712472184,
          -2.1258324117567224,
          -3.107111656172119,
          -2.6951001419478784,
          -1.1247702272129252,
          -1.252293171329836,
          -1.4388295813500012,
          -1.8461720196659186,
          1.5184323694018034,
          -4.107429757623777,
          0.5326317470672401,
          0.2529409292235199,
          -0.5106056284858385,
          0.20990434908199163,
          1.5833617621999578,
          -2.514464026731318,
          0.3641920881874177,
          2.3969925174019364,
          1.8228421673778465,
          1.2217888378865465,
          2.7360522125564946,
          0.18627486321048217,
          -3.8125491023299447,
          -2.343844854106741,
          1.1782344896733936,
          2.592012082171231,
          2.094241884440712,
          -2.429408260032936,
          3.012323404441934,
          -2.793074522771055,
          -2.8527266881524422,
          -0.3925399122027864,
          -0.7059563288407815,
          -2.4313953176289744,
          3.361862478968454,
          0.540237529728294,
          -0.0731437932479552
        ],
        [
          -1.8431854181770198,
          -1.2442716249256163,
          1.001306410710289,
          -2.0324438809066687,
          -3.691251914335199,
          1.3563778845006154,
          -1.455720792805204,
          -3.340286530894026,
          -0.33014606732414065,
          -0.6035406724093851,
          -1.8615491951205856,
          1.2482943582925645,
          1.7657595938987045,
          -5.844309207287103,
          -7.27194860717033,
          -2.063382963954504,
          -6.114162270595308,
          1.9372156316987212,
          1.334699681623548,
          0.41915676563309306,
          0.2705179341013554,
          -2.590026751350077,
          2.4773815458310726,
          -5.636230574995996,
          -3.625214361743684,
          2.343648443722519,
          0.6711261944340638,
          -3.300725029528239,
          2.931703125348884,
          -3.687054858372051,
          2.819355888765847,
          -0.5439426316702594,
          2.2355744634179424,
          -0.7928697540208806,
          -0.4989249227822458,
          1.0456973278418575,
          -0.9487509089567019,
          3.871392310505585,
          1.6119845558373878,
          -2.1809166785909673,
          -0.2784345897036972,
          -3.6542698310687505,
          -0.2573131762876456,
          0.43709285848144686,
          -2.991775105363282,
          -0.14313533374389034,
          -6.176814083499408,
          -2.5278671076819164,
          6.208632718597745,
          0.4614517779987096,
          -0.2570359667453415,
          3.705062423704762,
          -2.269646020975805,
          0.7898193800320455,
          1.3502886015761266,
          1.9243778552793676,
          -2.584217737629808,
          2.4265877629612276,
          -6.662626703251655,
          3.1667413853673114,
          2.558053245868111,
          1.3140945988390662,
          -2.862285801665297,
          2.0388032444848423
        ],
        [
          -2.0381278464331674,
          -0.19065837396410004,
          2.4662048078094454,
          2.1423101439433614,
          -4.139176986387909,
          -3.531698256353156,
          -0.9053941511694678,
          -4.91260567736374,
          -6.572007331867695,
          -1.0988441997484577,
          -2.44087157414614,
          -2.6164653981456785,
          2.1750447114572653,
          -5.75876695276848,
          -3.5122959632895903,
          2.864404762940384,
          -5.235197712429003,
          -1.680167366942242,
          -3.2677631687103514,
          0.4512697433067948,
          -1.306342228047965,
          1.4444589151483127,
          2.3572249766481916,
          -0.0011179643622950765,
          -3.6620083190770125,
          0.0054915922481042325,
          0.1845999002241052,
          0.40344424858976125,
          -0.4630145242552537,
          -1.5243828046284476,
          2.84277690876474,
          -2.480758802647257,
          6.231487282770857,
          -0.7325059118289118,
          4.33168701877972,
          -3.256214860873709,
          -3.9985599084540886,
          2.3609242741083936,
          2.2291915164071923,
          -2.3468025258605087,
          0.6738830007363007,
          2.127364886912714,
          -2.8106457410841563,
          -0.011963067775813777,
          0.6834338586479787,
          -0.370724462555158,
          -3.462870322834861,
          -4.868099723711657,
          0.08963207201073321,
          -4.328634249393425,
          -2.8504098886309936,
          7.454975732874549,
          -4.56218066517642,
          4.121665069584623,
          0.8003579168303624,
          -1.7282607321015095,
          1.871586568166407,
          1.4055476034631067,
          -1.8240543579192885,
          -0.47364838060893283,
          -0.05140996972707226,
          4.177848594851815,
          -1.5289242543030337,
          -0.33591143166885024
        ],
        [
          -3.789869487640384,
          1.6164412672311967,
          -2.4517987876509624,
          -3.011333051410334,
          -2.087754889434349,
          0.6148395907521774,
          3.395800091302487,
          -0.9740878763534052,
          2.420106529377703,
          1.8282648958533059,
          2.830872055545579,
          4.324291115936043,
          -3.8506360608828953,
          -4.680757428502724,
          2.907894666401241,
          -0.8063180861064434,
          -4.171216912031508,
          1.2965366956912445,
          -0.946126078205113,
          -1.8000166846131884,
          -0.661091171327995,
          -4.123685821034967,
          -1.9315920688843393,
          4.260173288432045,
          -3.290554974862521,
          1.5941822797608782,
          2.0177436012521524,
          2.266008267276206,
          1.0006595231878532,
          -0.17371419485292863,
          -0.6683649206889931,
          3.7396426358050516,
          0.943710071926453,
          -3.272474509217947,
          -0.941581112204619,
          0.27815197270386977,
          -4.878013266765262,
          0.29797061002668446,
          -3.8359505402861753,
          -1.0595115010691603,
          -1.8825444963644427,
          -0.8307154495481514,
          3.496838991855027,
          -2.5318590141425488,
          -1.5689420844444268,
          0.3318889001933639,
          2.954024125036622,
          -2.3483846380634894,
          3.1081711659226863,
          -3.4246976960475797,
          0.11933057002234597,
          2.874108140310924,
          -0.08708468360132286,
          0.99544596558109,
          1.8249291501438216,
          1.2056264527612586,
          3.607807326295771,
          -1.5016229648290738,
          -4.024272732587752,
          5.138527681495931,
          0.39481878924048497,
          1.9034228348009767,
          -0.5582793780240909,
          1.7448037118350304
        ],
        [
          -0.19593846563204886,
          -1.8968693924488294,
          -2.017090645368168,
          -3.9380756016274003,
          -2.4272738418775415,
          0.9792204388276777,
          2.9412415211912872,
          -0.07337381295224167,
          -7.990830821704821,
          2.5743117328991425,
          -0.24125211499319837,
          -0.21897066491847042,
          2.903159943873229,
          -2.7150488784097675,
          2.238612584321356,
          -0.9544569730817403,
          -1.172974509252778,
          1.5187879023487871,
          3.6028083011628356,
          0.021385263032132385,
          -0.043744773511126524,
          -1.7381245948943296,
          -3.5890126926220525,
          0.8403696424696504,
          1.2910015224015083,
          -3.5372159515891104,
          3.490936917588003,
          -2.4498231342563392,
          -2.4679919931414664,
          3.1536376356367164,
          1.7666428697536245,
          2.9661747903736857,
          -5.753312695986262,
          -0.26826778614072044,
          0.32236375346591606,
          -1.969467896685194,
          2.762618036281767,
          2.8218444842490698,
          -4.6549873512016005,
          -1.501531260487633,
          -0.63672128224047,
          -2.547614554956769,
          4.218332438706176,
          3.6662540928878893,
          -1.4202536210107874,
          1.325150918046034,
          0.2343249230403906,
          6.594233785727201,
          -0.5631768941995605,
          1.9865868374175895,
          0.03951544176937899,
          0.7885193461857207,
          0.3359909424132077,
          -1.9178243119191236,
          0.5637054469023215,
          -1.2644803775048885,
          2.790395080539225,
          -1.6966537842928273,
          -0.01940445420458673,
          3.0249538542488517,
          -1.693032695398503,
          3.9778694209803094,
          0.6124137896197562,
          0.3700453477444259
        ],
        [
          1.3810658139260636,
          10.435107810548205,
          2.718727344284378,
          0.6139403214197606,
          -1.399239079316854,
          -2.3078275504098844,
          -6.309371412095993,
          -0.4219114426729739,
          1.2703753391380004,
          -5.875165728044443,
          -1.1319601467974612,
          -0.4349184505882023,
          3.520341593049863,
          -1.0812342496943907,
          3.686607009383469,
          -2.6146319083889273,
          0.7653907591987206,
          2.4127989546389887,
          -2.264856877786944,
          0.8823858089567974,
          -2.00210797665782,
          2.7290610342634203,
          -1.0442619367341608,
          -2.529995992134828,
          -3.4559568019241547,
          0.7961777686749706,
          -3.045821925631494,
          -1.5535539690585602,
          1.5958788220643612,
          -0.5352344112016341,
          0.5181846347908033,
          -0.7205387685193206,
          4.344789328469833,
          -0.7608745717955505,
          -2.2368121714162847,
          0.3264669938777825,
          -2.322116405447885,
          -0.019228383945740037,
          7.691606890228713,
          0.3731150123498573,
          -4.591272152795218,
          -0.5819405957037513,
          0.854254182080365,
          -2.1266933471486476,
          0.15867999127463325,
          -0.7823332820026863,
          -4.040761632599034,
          0.07964811614569577,
          1.2224536952744738,
          -0.8105115401419437,
          3.464261331979427,
          -5.053248105637378,
          -0.4827262805741492,
          0.7858147114234256,
          -2.4227921701700788,
          1.2179172483647613,
          -2.909765934100774,
          -1.1742113083863155,
          6.0078982272272965,
          -3.5611137883890702,
          1.0633219122898374,
          -2.629506331027048,
          2.841517382022618,
          -2.8410294686251976
        ],
        [
          -5.439943833935662,
          3.0649478593665695,
          2.2270378567544142,
          -6.45166849747443,
          0.1228101974862812,
          -2.845420110057599,
          0.7035585663954335,
          1.6456279891867576,
          5.00386089758459,
          -1.2557535287104873,
          -3.6266167456975205,
          -1.10477531148656,
          -2.8811841342621234,
          -6.882140115402936,
          2.253469634068667,
          1.1034144413535452,
          4.333618046919437,
          -0.45387414421185823,
          0.42844006374597804,
          2.3588221062262376,
          0.7149061510093585,
          -4.788671070515785,
          2.300692116707952,
          -1.7885668657350073,
          -7.717967452953929,
          5.098907647699603,
          -2.13915311689671,
          -1.3988349119841152,
          -1.9763776459503686,
          -1.9189854397426942,
          -4.147430935526394,
          -4.316035729233036,
          1.5124081645200202,
          1.5220677358996673,
          -1.8479175475767393,
          -1.5938673294466519,
          0.7409746800447957,
          1.5940238708199226,
          5.0424186726454385,
          1.447206029682368,
          1.0236962194236534,
          1.2828835204590463,
          1.5066992448520593,
          -3.3791111310164768,
          0.15046862374772527,
          -2.402961256272502,
          -1.9428393490065774,
          -7.392234525774078,
          0.6101017221243304,
          0.3759121504023263,
          -4.129703932431215,
          -1.9545731562403201,
          5.002011777024328,
          -0.1917975355374904,
          -6.640048704636125,
          -2.93877912405262,
          2.8650329104809886,
          1.3614028248861396,
          -3.569337866881283,
          1.0622697464160318,
          2.385230644721113,
          -2.4422303428483634,
          -0.7490536855144309,
          -0.4981079112764126
        ],
        [
          -3.384840612267525,
          1.5890932265619133,
          -3.3823420331388068,
          -2.1031497986506387,
          -3.926804733973326,
          0.89108655335652,
          2.8801926549170274,
          -5.075886747328675,
          0.5773630196550473,
          0.9778870907859117,
          2.5426914249543016,
          0.45290130309942694,
          3.431783694915247,
          0.33538308004935374,
          -0.27231953389854147,
          2.80046582936967,
          1.8852721923646254,
          0.5421144365058852,
          -1.4807321985056492,
          -0.9153896900684563,
          -3.499179822906404,
          6.466697428236665,
          -1.0650294057539358,
          -5.289630927947816,
          2.1754595386546973,
          -1.9824674325275773,
          0.7305157594282392,
          0.6059467096613124,
          -0.6143314499561316,
          -0.9470711690638238,
          -3.0017229221485664,
          3.3268938732232227,
          2.525598342104384,
          -3.464830039368694,
          0.4787169099259597,
          -0.4444216553610097,
          -1.236510922222455,
          -1.3646393944077202,
          -0.09032113357712668,
          -0.08301789587723007,
          -2.104598483929484,
          3.3586501955398353,
          -6.575577170802897,
          -1.0264611614186674,
          2.183247774882255,
          0.6217607275876829,
          1.298704045706211,
          -0.5793218789688596,
          0.10864084267736095,
          -0.6408967078896615,
          -2.4147723099779013,
          2.617671148645005,
          2.978028857169687,
          -3.730362035884783,
          -1.8167746332943322,
          0.10238152857291555,
          -2.351490407719951,
          -0.1861304771275081,
          2.437119115188832,
          -3.1747117278862125,
          -2.2573351739227028,
          3.936796230349709,
          -0.012101655189004417,
          -1.4204446638365378
        ],
        [
          0.677991952990743,
          -2.7987520513227917,
          2.83192559776414,
          3.511614322150342,
          -2.805294333259575,
          -5.715239157226117,
          1.6207836859695095,
          -2.568071941086729,
          -0.11259588888014804,
          -2.5874180945882594,
          0.02623892282927206,
          3.228260949794248,
          1.938914194794252,
          -2.5896999988657665,
          -2.3527083575253926,
          -1.7008000073017397,
          -3.8222074172367537,
          0.008589453652555902,
          1.623837402188684,
          1.276725538229728,
          -3.466636267909003,
          -1.538749463328685,
          -2.794457160305416,
          -4.136461337347531,
          -6.105994372361145,
          -0.775410623532239,
          -0.7824091200963693,
          -0.08187901196752212,
          2.6026516210524164,
          -3.45408492212708,
          -1.786769157861256,
          2.2631721992706577,
          -2.2642774336743456,
          -2.4623431571480947,
          -1.0163016572854355,
          -5.556339243391659,
          1.5657410732574484,
          -1.8052565089096897,
          0.22288071618375405,
          2.918667859205529,
          -3.575567014682599,
          3.262949078171879,
          -2.3858827214849954,
          3.1664621737281524,
          -3.923701010874232,
          -1.0309431677632952,
          2.27531691227614,
          -3.3179988768702566,
          1.8893487958809332,
          0.020670028438730823,
          -2.0629968399787995,
          2.979883560896564,
          -1.72781359731209,
          2.1781646513034496,
          0.9322906155448748,
          -6.578533243976823,
          -2.027544947381763,
          0.8129693192392157,
          4.446569956643579,
          2.4950906806457867,
          -2.8004730737955432,
          2.006094686810268,
          -2.0398283273116413,
          -5.053427087492946
        ],
        [
          -1.3594651408135696,
          -1.6749900979418717,
          1.6171281581378474,
          2.2368069095272047,
          -0.14972141323976307,
          -0.5339087950893978,
          -1.4551925355305062,
          0.9314339674353362,
          0.3142046039918156,
          -3.7863817789225926,
          -1.6824406733218733,
          1.0963690511701802,
          4.771926859705945,
          0.5794762628642446,
          -0.513567513848473,
          -2.1103386632182572,
          -0.38411708434047726,
          -2.7597809774972197,
          5.002123815619955,
          -1.783656996873147,
          3.3601138955624266,
          4.400557942769404,
          0.732282638763505,
          0.8346974151623957,
          -0.19248022559164335,
          -6.119304140676297,
          2.9895071462047342,
          -2.865051030304405,
          -2.729920805664639,
          -2.2733404082390867,
          1.1077285707603601,
          -2.2735614561582422,
          -3.8417382327086664,
          -2.721592275109771,
          -3.26729706183981,
          0.6838708349725928,
          6.507345637581109,
          -4.952865687495555,
          0.08060885271557519,
          0.31813941823765196,
          0.2632922515377895,
          1.940677836380842,
          -7.17188001507116,
          -3.5401256211094823,
          -5.48599533120991,
          -1.1671817941627676,
          -1.4254077759442478,
          -0.6620589803868,
          -4.339129558866428,
          1.239841151520695,
          3.736998215769699,
          -2.3352623560542938,
          5.299599491600767,
          -3.230869039038634,
          -8.060285706766281,
          -0.41801465957486683,
          -1.014916422973765,
          -2.0209111160563342,
          3.581723611772366,
          0.6130172085311155,
          0.7534893676603472,
          0.8637352881311426,
          2.6788868141422726,
          3.875556243691456
        ],
        [
          -3.956559675166047,
          -2.829088338241569,
          2.0070902126865455,
          4.14743703615137,
          2.716387255463271,
          2.159446290107732,
          0.8220602558816684,
          1.2649896599325592,
          -0.9268660120338045,
          -1.6373794614783197,
          2.1686497243563188,
          4.4534901399430735,
          2.3733006547187436,
          0.08766220757505878,
          -2.6543371994985185,
          3.1756627880856705,
          -3.0456444360909094,
          -0.26218252953499305,
          -3.4997352611637385,
          -2.0294758248538005,
          -0.7883609868910892,
          -0.8917051600764003,
          -0.5579638701381107,
          3.5860499279356266,
          -3.307108947375306,
          -0.15223592087454907,
          0.1826313161508137,
          -0.1663110184082102,
          -2.9116997366937625,
          -0.0655954515311712,
          3.8339031356713855,
          -2.7673728263615436,
          -1.6500372508555954,
          1.764382224198578,
          -0.44808731489428866,
          2.3722809194613195,
          3.6596594754773433,
          -0.9747978350362563,
          -2.31789249029156,
          -0.029322392057665583,
          2.2830250723284395,
          -0.2440363810471848,
          -1.2788630736027622,
          -0.33204825560206547,
          0.4395930889651072,
          -1.9367748106105622,
          4.893463473333349,
          1.154657913864736,
          -4.780162795565497,
          -5.385200259496934,
          -1.3600322954922566,
          5.624735144875873,
          2.2383709079584238,
          -3.6277252491264513,
          0.015327765938273993,
          -0.9767458844230309,
          1.856660256827624,
          0.9507380036911092,
          -0.14711060557074057,
          3.4734284080101814,
          0.5774385445995545,
          -3.146729348954418,
          -0.5400529539704134,
          -0.6042015281643811
        ],
        [
          0.43429595897053186,
          -2.2694052942814626,
          0.1513298644160191,
          1.9295259972741068,
          1.1183243031303212,
          1.766405712008697,
          -0.10536037154089262,
          1.8043346320028566,
          0.4042486200724978,
          0.9225597565819829,
          -2.147598610162494,
          -2.5185085401814793,
          -1.773942259634776,
          1.523540345122211,
          -2.033266609132004,
          -0.035154474490753033,
          2.1693003012536485,
          0.5183452990848814,
          -1.2617960918717939,
          -1.3701672891550134,
          1.9870591781169897,
          -0.6321674132601239,
          -0.8819458405709977,
          0.43122489088542326,
          -0.5965117189722987,
          -1.6646770931837387,
          -0.971196886977855,
          -2.1487958895550543,
          -1.8607586203930675,
          -1.9086263504625622,
          -0.10569336506668545,
          -0.3507335798080666,
          -1.1608192687213335,
          -1.15074239540798,
          -0.2898882523357194,
          0.25353600997454795,
          -3.6931312093515247,
          -1.692593151729235,
          0.08694107553209898,
          -0.21920107551539741,
          0.9695050076078854,
          -1.6253151373825683,
          0.6117129324872267,
          -1.4554988226176466,
          -0.38264559317701996,
          0.7658269802833118,
          -0.4625359336950447,
          0.13011559644564508,
          0.39642151901395795,
          -1.0784782346740645,
          -0.4962668531192632,
          0.66541483663478,
          1.228075605064038,
          1.167126809867035,
          -0.7243731346768039,
          -1.2852289366488099,
          -1.2741805491097282,
          -1.629572127051511,
          -1.000803289233566,
          -0.6705838405937481,
          0.378499931194301,
          -1.4718310059174304,
          0.02088501060283587,
          -0.019391692508882487
        ],
        [
          0.698445977525396,
          -2.247027209500968,
          0.5092364611616683,
          1.5504796915089238,
          0.9531410575737292,
          1.4744931815749116,
          -0.452110187317992,
          2.0660140059704726,
          0.69926560410402,
          1.1501305834259563,
          -1.9381795850042645,
          -2.9322982622945903,
          -1.8969317029464783,
          1.3278719674672164,
          -2.270600189948395,
          -0.2023491650871883,
          2.482284095262596,
          0.6640276270155913,
          -1.26557734251144,
          -1.1682817499354001,
          2.273729825629238,
          -0.6602478978831605,
          -0.7253176167903733,
          0.3555347500742665,
          -0.5442608150056897,
          -1.6546584551262604,
          -1.022305054993134,
          -2.438071464188592,
          -2.0527367983539833,
          -1.9381095696167494,
          -0.007672822910248874,
          -0.5735504177434834,
          -1.3805390754564286,
          -1.0701797725625541,
          0.039267427876673845,
          0.10488585669714708,
          -3.4975327724846443,
          -1.639770411114256,
          -0.0660312265983277,
          -0.0676355886378446,
          1.2222358797004973,
          -1.5098324342308538,
          0.48253831970162037,
          -1.5640309213500005,
          -0.700199925487419,
          0.7272661984718968,
          -0.32189346732986507,
          0.41684261674711215,
          0.5910175729255469,
          -1.2428626439150625,
          -0.15210159181742725,
          0.23940126453862107,
          1.2656301892002488,
          1.1162324417858809,
          -1.0064909306250545,
          -1.342745927283627,
          -0.8877875544051748,
          -1.6124319441534976,
          -1.010947450115961,
          -0.5314687872475827,
          0.36975527852886236,
          -1.2033708480599128,
          -0.11541467320723212,
          -0.15251666855469043
        ]
      ]
    },
    {
      "activation": 1,
      "biases": [
        -0.35428236483674774,
        -0.9844769865517762,
        -0.6538009081326042,
        -0.36084234770241663,
        -2.559351405465316,
        0.521647178599251,
        -1.025434400763187,
        1.4715560176608535,
        0.13776473490684232,
        -0.555430991826576,
        -1.2434578777540177,
        -0.3754421441182628,
        2.1206362416850415,
        -0.7779867164714034,
        0.5136430098506105,
        -0.4392870425197197,
        2.2797350433209633,
        -0.36856568080915025,
        0.697558804386017,
        0.15337952298093208,
        -1.0624768706777805,
        0.8374329190576972,
        0.6788033471108582,
        0.23032564909010533,
        0.4129115228315899,
        -1.6819347656372299,
        -0.5910084374155897,
        0.5532314894704999,
        1.1474586257604733,
        1.515996047927486,
        0.46776875430560194,
        2.4240721787529886,
        1.2312075242475988,
        1.0047391665503447,
        1.7750202416855791,
        -0.397879862283569,
        2.239764477727138,
        1.1040378515307474,
        0.03324825926743649,
        -1.8401911972524514,
        0.3094068056263638,
        -0.8722385390285972,
        0.3373317531492986,
        -0.07172102467041502,
        0.023095579002133985,
        -0.3957609058911201,
        1.1452086940638924,
        0.14339512164098306,
        -0.0651827598478877,
        -0.22610513054030856,
        0.1613856697382895,
        -1.0493691872144024,
        -1.0377203640352723,
        -0.918084234932152,
        0.4932823108881067,
        -1.245995793772733,
        1.5686401554044065,
        -1.514041940008721,
        0.24388371409126042,
        0.11925345382831436,
        -0.16836902813692511,
        -1.7452872984934487,
        -1.3621613685476806,
        1.1073617539273435,
        0.07909881455194606,
        1.2332554870074666,
        -0.1982410943002148,
        -0.5668774310025742,
        -1.3258124756527272,
        -1.117031869052438,
        0.6067367073096256,
        1.4504689798017203,
        -0.40220712113939233,
        0.37519451308092167,
        0.5682187046683614,
        0.7034297710661296,
        -1.9025440239278502,
        -1.3120123704337752,
        -1.9455191599105055,
        -0.312992428371709,
        -1.1833689264996983,
        -1.2722552138772505,
        -0.6051979848607937,
        0.4962766850456392,
        -0.32376374529617474,
        -0.034482298381436155,
        2.404376902262165,
        0.7711193293788177,
        0.8652913341234816,
        -1.7255286021874776,
        0.6597790368635262,
        0.9352882939480835,
        1.0825119304812436,
        -0.9944360712732728,
        1.8192074075050289,
        -0.7678452323157539,
        -1.7280136030094821,
        0.6027370767250825,
        0.5443068698360827,
        0.08525589588066806,
        -2.3924822544895035,
        1.0620249975469722,
        0.20486180384288294,
        -0.7232050816631497,
        -3.0609010567222223,
        0.5662011778063173,
        -0.44997402129484404,
        0.12295746854191736,
        -1.5711351874819475,
        0.06479231977497507,
        -0.2481195867355151,
        -0.9987762644540458,
        -0.04742559982266538,
        0.14812144815707384,
        -1.6241480227750589,
        -1.0941458978428593,
        -0.5398815158930931,
        -1.4726501513637824,
        0.9980877644988344,
        0.6258597562352636,
        -1.5552708291007697,
        -0.8375432342556953,
        -1.3977111014500578,
        -1.5185892676729538,
        -1.0663351831195835,
        -0.062455781985666266,
        0.009973995943869903,
        0.8302747650818525,
        -2.755068033742455,
        -0.2827458870143325,
        -0.13164502489268637,
        0.1763847019999289,
        1.9365470895200771,
        -0.6799455974948466,
        0.024873743200009287,
        0.4815622322533011,
        -0.26394764606678023,
        0.05173283516078411,
        -0.2704877840814405,
        1.8700935842307582,
        0.5940463123091103,
        1.0176460975621069,
        -0.39320456442608964,
        -0.18945564579053437,
        -0.4025643793156894,
        0.45437694472420487,
        -0.17368851152898168,
        -0.7042562685983145,
        -0.6329839824441574,
        -1.6789475615435787,
        0.2281590587651829,
        -1.269317256196183,
        -0.46683978803642684,
        -0.41756049690695746,
        0.5934255343964316,
        -0.25578281027107436,
        0.7256143578632295,
        0.8460101702838888,
        -0.7530340864255757,
        2.0421849238810394,
        -0.4315970445573769,
        0.1382523243126131,
        1.0360078243872894,
        -0.7585945487209409,
        0.25657946946800864,
        -0.9869586759033795,
        1.1047458607211875,
        -0.10851862936551074,
        -0.370720135208525,
        1.7957213090733157,
        1.1577149584849613,
        0.2985737709913907,
        1.2375691320473101,
        0.7169015815090951,
        -1.0544158840555895,
        -1.9236028589529008,
        0.044634362511101075,
        0.09447813128224997,
        0.713930599775385,
        0.05296525916108392,
        -1.1361397465995309,
        -0.004469841836422627,
        0.8061387555658651,
        -2.1350121267501256,
        1.6359383871296602,
        -1.1352130831414917,
        1.6009234344335372,
        -0.8772306118402986,
        -0.2663553046228106,
        0.8206879013863831,
        1.2067935768226654,
        2.7929271554976616,
        0.01901024704472948,
        3.7773578005646796e-05,
        -0.4210577166303706,
        -0.21164381568809365,
        -2.4919391350241478,
        -0.15830315180729404,
        0.4609900268963879,
        0.40125587579530925,
        2.1148843351288775,
        0.6192327197531152,
        -1.0417888145094085,
        1.0004508892869064,
        -0.06233427090244457,
        1.3436996382442197,
        -0.942383203978547,
        0.17582265107389342,
        0.29076421146320297,
        0.9055326327637923,
        0.5609923995905765,
        1.4586325612136235,
        -0.9839511662863946,
        -1.5789850404984815,
        -0.8631687396186534,
        -1.4199445294971251,
        -0.1880568022637776,
        0.450756308820669,
        1.4421922478969915,
        -0.13467137265713722,
        1.8005964486525532,
        -0.4679477135145052,
        -0.7124554932039376,
        -0.004493575414080863,
        0.6069833403504901,
        0.5521305049524163,
        0.6813071510930349,
        -1.7999093514955617,
        -0.3095584365774936,
        -0.4237539567896028,
        -0.8757632705869215,
        -2.0961682963301365,
        0.18993165016644747,
        -0.3197000742082057,
        -0.048849507271739215,
        0.1319233117751951,
        -1.6201960251165592,
        1.0175852241711711,
        -1.331390538507908,
        0.6260478032548467,
        -1.1320095258116745,
        -0.004043412598971543,
        -2.481938022738867,
        -0.4994387606589583,
        -1.4999325563208752,
        0.04376636487008771,
        -1.2821528733277083,
        0.045737393731941925,
        -0.10157615213984378,
        1.9635632591089298,
        -1.5639136622439493,
        -0.43961023161031887,
        -0.41024131289240756,
        -0.25040337803548685,
        -2.047399061807768,
        -0.506197489555149,
        1.9951470616152762,
        0.7235689297658471,
        0.06867743636394132,
        1.2485841465659155,
        0.6902401934160385,
        -0.6004343866740566,
        0.4920311909053379,
        0.05127699776182707,
        -4.065893879488951,
        0.05682402552974089,
        0.8476545638709152,
        -0.008210663155903757,
        -3.161946456876366,
        -0.02655580403173975,
        0.5017008999337635,
        -0.27758400386401794,
        0.897101673386246,
        0.413679444408109,
        0.72610357366684,
        -0.8170044382132465,
        0.22772305314202648,
        -0.43153546156917755,
        0.8841950849835168,
        0.5810377601886327,
        -0.03788451663165938,
        -1.8719060377836343,
        0.850447580817647,
        -1.107584529779543,
        2.1332797870975932,
        -0.9940028605024032,
        0.6983271183730925,
        1.2424038382769815,
        -0.7047926305753931,
        -2.3552802811899567,
        -0.4080333584660467,
        -1.2534184293460024,
        -0.5516416013269878,
        1.6928237719833479,
        -0.30034336130309114,
        1.1092965019754315,
        -1.5759346431677757,
        -0.3260682928784893,
        -1.3553112912427006,
        0.21404350539499906,
        -0.370537699127157,
        1.8784423714250158,
        1.4054057762943197,
        -2.299009212705914,
        0.8057710326746699,
        -0.03815632554722431,
        -0.42777047682838465,
        -0.39404375985382883,
        2.2426202621434603,
        -1.8715342987519734,
        -1.784876010615278,
        -0.2968861861993909,
        0.7973126179561603,
        0.7211311978722192,
        1.1945608961000984,
        -2.0119490293327362,
        -0.27728425550112823,
        -2.0734837765778438,
        0.6925417535173194,
        0.43277652061751753,
        1.301494988377787,
        0.8801067603719368,
        1.139537422309138,
        2.337584594256658,
        1.1401976523138484,
        0.4666732497439619,
        0.8265261508680757,
        -0.2866429356999864,
        -2.1470513571579724,
        -1.8318442271310955,
        0.3999571627373079,
        1.4537633291904717,
        0.47623994876535514,
        1.7482937257938478,
        -0.8664528712911149,
        1.3162831374046242,
        0.43357458589687703,
        0.2226066757802491,
        -1.5781355300753626,
        0.547612403066201,
        -1.7576124767291177,
        -0.28153027817746573,
        0.6241222934789806,
        -1.0029985094430112,
        -2.388038716450057,
        1.6823132934042717,
        0.045182274841141214,
        0.6525743875241627,
        -0.1258088433879571,
        -0.5468696958578911,
        -0.4327961778101637,
        1.424086838534968,
        -0.38808689046192735,
        1.6488188976428078,
        1.0677950942086116,
        1.1135263399444228,
        -0.9935006865546356,
        -1.2180624489983325,
        0.7173300652138478,
        -2.2429564362587624,
        -1.5583520181325354,
        -0.30760018886441937,
        1.8286906963317004,
        0.6995341733251705,
        1.3680553658099304,
        -2.874142191891779,
        -0.8767411802879806,
        1.9953365633487161,
        0.23764844669546256,
        0.6788736509654059,
        -1.4520503536611085,
        -0.279932036353236,
        -1.7769804278519996,
        0.1889076021926691,
        0.9546842611113617,
        -2.267409109344765,
        0.516410334436027,
        1.1642892026446656,
        -1.2918185481274054,
        -0.4162375937590047,
        -0.0980574791481547,
        -1.2418276470091796,
        -2.6414706462827637,
        2.4552925600173334,
        -0.7861861951835234,
        0.8801361054850698,
        -1.2763249443582008,
        -0.8929305129769843,
        -0.6981341512104406,
        -1.149482675281437,
        -1.1444772677149528,
        -0.02967270767994444,
        -0.5584801795913804,
        -0.1995631393982149,
        -0.5478561903504705,
        -1.8509041959379753,
        -0.5690195348962835,
        -0.12099253723937521,
        0.10079231395535973,
        -0.7126590988033474,
        0.715647106605313,
        -0.6368241131651866,
        -0.6961301622477749,
        -0.41664735156409594,
        -0.7958875893810231,
        -0.8815157132559017,
        1.0402722467937788,
        1.0869271145845625,
        0.44399004724937097,
        0.6337563033125317,
        0.3165576188135618,
        0.44076222580178254,
        -1.251013974759328,
        -1.4399434004177076,
        -0.5619128715180556,
        1.1912396780005157,
        1.7442238246038035,
        1.1314569699108035,
        0.9488112987596347,
        3.0440281878705657,
        -0.8243626067096381,
        -0.17920179382559118,
        2.2965308150623067,
        -1.1159282865829325,
        0.39392194673987274,
        -1.6723776819904665,
        -2.5869768899479513,
        1.0942858439551277,
        0.02396293504339353,
        -0.18329562199141014,
        -0.9802949404978742,
        -2.130451269775985,
        0.7361964777313224,
        0.5681706014647216,
        -0.20232238763786617,
        1.8458023197835853,
        -0.4791359778970907,
        0.6400272191910171,
        -0.46324293349097256,
        0.15402864805432648,
        0.09333138660982448,
        -0.7488315004719869,
        1.2563882070478927,
        -0.23415386611410202,
        1.5394708989861552,
        1.0260847418777732,
        0.2897470214835929,
        0.30148883322176145,
        -0.5800004872361545,
        -0.9732540783627706,
        -0.4499873761768541,
        -0.40908457449254654,
        -0.1543744825236694,
        0.2586991568305365,
        -1.849177161222503,
        -0.6736516731406484,
        -0.21730276159468237,
        -0.03231572416627924,
        -0.2959296893417964,
        -1.7143648516368448,
        2.769165613359604,
        -0.29123611035208546,
        -0.670538999244893,
        0.10812780733150555,
        1.2060318741391387,
        -0.4479475964737187,
        -1.0648487970267058,
        0.5399352846193018,
        -0.7422206377651211,
        -0.1624417983638974,
        0.7302586472724736,
        0.3610391692241001,
        0.9075914732360263,
        0.7519207202596194,
        -0.8092850703623481,
        0.5835229673170812,
        -0.1670408217873076,
        1.5781048950342689,
        1.751300015179421,
        -1.3517751157744249,
        -0.686302461819809,
        -1.435409421147769,
        -0.7954764059903814,
        -0.017313352709063687,
        1.6750415076237792,
        0.90710793861814,
        1.882117930685198,
        1.1583484953918877,
        -0.12994749178786727,
        -1.2388155037814303,
        -1.6808186364059108,
        1.0558609163773485,
        0.41761067473990876,
        0.6148720695253168,
        -2.827422511296205,
        -3.5204478032947137,
        -0.2883891347678672,
        -1.7645270175760253,
        0.5850949895370965,
        0.053470084506928896,
        -0.12692349929473443,
        1.0039831026079034,
        -3.3472626532383982,
        0.9632386010686187,
        -0.9580106468118352,
        0.19147307499324645,
        0.6835433123124806,
        -1.0331840945991062,
        0.2757845878680778,
        -0.8148084929125144,
        0.01538759344439804,
        0.6582174535473997
      ],
      "cols": 512,
      "rows": 64,
      "weights": [
        [
          -0.3381102502347734,
          -0.5296595114915342,
          -0.7714300486546447,
          -0.9593613499458674,
          0.7403512343921764,
          -0.16037477509050546,
          0.48759198006132504,
          0.0003552519670741594,
          1.139962980238707,
          0.6722448483086808,
          -0.11257694593347294,
          0.649955936217508,
          0.01644092145495916,
          -0.5539393419674508,
          -0.3583608072678632,
          0.14781109384173832,
          0.6926391627669167,
          0.8938626924600772,
          -0.7770368706200359,
          -0.5111314375527752,
          0.29440299981852996,
          -0.6696817204408541,
          -0.8558968091519567,
          -0.8771408903313295,
          0.38710481757503556,
          0.5509321409410161,
          -0.8879029669501117,
          -0.3114104604621197,
          0.958141460237445,
          -0.6636272113587663,
          1.0698826418604936,
          -0.03862107738344234,
          -0.19106907815204058,
          0.47980162365083207,
          0.014270283804731585,
          -1.3877838131959737,
          0.03935202189163595,
          0.15804679377375447,
          0.765016094410415,
          -0.5980877466538331,
          0.2542419983228115,
          -1.3627936914984466,
          0.255837418883501,
          0.1575163933206894,
          0.6096344494085915,
          0.08552470231262034,
          0.5285422839247516,
          0.6529645667862509,
          0.24372057742366718,
          -0.9138697592568588,
          -0.9577161633291584,
          -0.02841644429715282,
          -0.24241782991481817,
          -0.6125430800250291,
          -0.5716387842587266,
          -0.2105711162382627,
          -0.042952960389667526,
          0.8412175162782847,
          -0.03930070255105386,
          -0.5639586053381621,
          -0.051663834167693136,
          -0.05801459046517003,
          0.4565675637262352,
          -1.0401006278643523,
          -0.036574624945223025,
          0.009119994108438086,
          0.0994096747085712,
          -0.9294880200364016,
          -1.0697278372675727,
          0.18069738117569634,
          1.0115039416176022,
          0.17012882990095343,
          -0.34704889690960056,
          -0.584170536365515,
          -0.482662984576058,
          -1.226853341439497,
          -0.38174180396978497,
          -1.3059862642393454,
          0.20343723828111943,
          0.6187919219074871,
          0.25428582315520776,
          0.7378474408777419,
          0.33504741494748086,
          0.8351670482535968,
          -1.4700112421883207,
          0.45745177788232383,
          -0.6633196853331171,
          -0.5198459784307217,
          -0.14982474422630548,
          -0.7682102632605147,
          -0.20126746847484334,
          0.6143779598141023,
          0.07306467247397151,
          0.3491958769789533,
          0.4031867448348915,
          0.589406443170272,
          0.9646725922345945,
          -0.8917998316421941,
          0.6943337595766433,
          -1.4259367470232882,
          0.18466548819984915,
          -0.19062858372038377,
          -0.32727387957638004,
          -0.4529634318227836,
          0.5278594779480709,
          0.5841627818525272,
          -0.7837912012261422,
          -0.29384415499921873,
          0.16706516795973742,
          0.4301035296129727,
          -0.7382039357356618,
          0.8125498558360448,
          -0.7002775193238711,
          -0.4830190881428596,
          0.2991748470671615,
          -0.25309959918806824,
          -0.4118197000448467,
          0.621398479600658,
          -0.026708284821003514,
          -0.21008355393107822,
